svm_type nu_svc
kernel_type rbf
gamma 0.001
nr_class 3
total_sv 104
rho -0.0997146 -0.0582146 0.0441115
label 1 2 3
probA -4.22796 -4.02808 -3.48619
probB 0.493168 0.173947 0.0740704
nr_sv 29 49 26
SV
4.699217274029715 0 1:2.7153906 2:0.16955685 
4.699217274029715 0 1:2.7464372 2:0.31112432 
4.699217274029715 2.130543204693459 1:2.2798974 2:-0.74778271 
0 2.130543204693459 1:2.626482 2:-0.17040535 
4.699217274029715 2.130543204693459 1:2.6738447 2:0.1066917 
4.699217274029715 2.130543204693459 1:2.5065268 2:-0.65193501 
4.699217274029715 2.130543204693459 1:2.6131427 2:-0.021520632 
0 2.130543204693459 1:2.3838693 2:-1.3447543 
4.699217274029715 2.130543204693459 1:2.199078 2:-0.87924409 
0 2.130543204693459 1:2.5873462 2:-0.52047364 
4.699217274029715 2.130543204693459 1:2.3105317 2:-0.39786782 
4.699217274029715 2.130543204693459 1:2.5432349 2:-0.44003175 
4.699217274029715 2.130543204693459 1:2.3031285 2:-0.10552268 
4.699217274029715 2.130543204693459 1:2.3561711 2:0.031209589 
4.699217274029715 2.130543204693459 1:2.5079172 2:0.13905634 
4.699217274029715 2.130543204693459 1:2.469056 2:-0.13788731 
4.699217274029715 2.130543204693459 1:2.5623909 2:-0.37468456 
4.699217274029715 2.130543204693459 1:2.6328479 2:0.19007583 
4.699217274029715 2.130543204693459 1:2.5884621 2:0.19739308 
4.699217274029715 2.130543204693459 1:2.4100773 2:-0.41808001 
4.699217274029715 2.130543204693459 1:2.6738447 2:0.1066917 
4.699217274029715 2.130543204693459 1:2.6738447 2:0.1066917 
4.699217274029715 2.130543204693459 1:2.590323 2:-0.23605934 
4.699217274029715 0 1:2.8522111 2:0.93286537 
4.699217274029715 2.130543204693459 1:2.4055141 2:-0.19591726 
4.699217274029715 2.130543204693459 1:2.208833 2:-0.44269603 
4.699217274029715 0 1:2.7156652 2:0.24268148 
4.699217274029715 2.130543204693459 1:2.5375734 2:-0.51036755 
0 2.130543204693459 1:2.5426858 2:-0.58628103 
-0 55.28878519148319 1:-1.2847946 2:-0.68543919 
-0 55.28878519148319 1:-0.93241075 2:-0.31919809 
-0 55.28878519148319 1:-1.4640613 2:-0.50418983 
-4.699217274029715 0 1:-0.18096721 2:0.82560394 
-0 55.28878519148319 1:-1.0871345 2:-0.075390389 
-0 55.28878519148319 1:-0.64043675 2:0.41732348 
-0 55.28878519148319 1:-1.0952237 2:-0.28389121 
-4.699217274029715 0 1:0.75146714 2:1.0011075 
-0 55.28878519148319 1:-1.0432978 2:-0.22895691 
-4.699217274029715 0 1:0.010190071 2:0.72057487 
-4.699217274029715 0 1:0.5110862 2:1.262492 
-4.699217274029715 0 1:-0.51109806 2:0.10228411 
-4.699217274029715 0 1:-0.26233576 2:0.5478933 
-0 55.28878519148319 1:-0.98404455 2:0.12436042 
-4.699217274029715 0 1:0.174864 2:0.25181557 
-0 55.28878519148319 1:-0.92757294 2:-0.46823621 
-0 55.28878519148319 1:-0.65959279 2:0.35197629 
-4.699217274029715 0 1:-0.23454059 2:0.33192183 
-0 55.28878519148319 1:-0.94236171 2:0.54182226 
-4.699217274029715 0 1:-0.0432464 2:0.58148945 
-0 55.28878519148319 1:-1.1162407 2:0.084214014 
-4.699217274029715 0 1:-0.35678657 2:0.066823828 
-0 55.28878519148319 1:-1.2964689 2:0.32756152 
-0 55.28878519148319 1:-0.92050265 2:0.18239036 
-0 55.28878519148319 1:-0.89964086 2:-0.32961098 
-0 55.28878519148319 1:-1.3310414 2:-0.24466952 
-0 55.28878519148319 1:-1.5573963 2:-0.26739258 
-0 55.28878519148319 1:-0.81245555 2:0.16233157 
-4.699217274029715 0 1:0.30733476 2:0.36508661 
-4.699217274029715 0 1:0.070342889 2:0.70253793 
-4.699217274029715 0 1:0.19188449 2:0.67749054 
-4.699217274029715 0 1:-0.13499495 2:0.31170964 
-0 55.28878519148319 1:-1.378737 2:0.42120514 
-0 55.28878519148319 1:-0.58727485 2:0.48328427 
-0 55.28878519148319 1:-0.8072055 2:-0.19505396 
-0 55.28878519148319 1:-1.220429 2:-0.40803534 
-0 55.28878519148319 1:-0.81286779 2:0.370679 
-4.699217274029715 0 1:-0.24519516 2:0.26672804 
-4.699217274029715 0 1:-0.16451343 2:0.67966147 
-4.699217274029715 55.28878519148319 1:-0.46303099 2:0.66952655 
-0 55.28878519148319 1:-0.89016045 2:0.033812443 
-4.699217274029715 0 1:-0.22887905 2:0.40225762 
-4.699217274029715 0 1:0.70708128 2:1.0084248 
-4.699217274029715 0 1:-0.35553304 2:0.50321849 
-4.699217274029715 0 1:-0.33112695 2:0.21118014 
-4.699217274029715 0 1:-0.37523823 2:0.29162202 
-4.699217274029715 0 1:-0.64169028 2:-0.019071176 
-4.699217274029715 0 1:0.90846333 2:0.75156873 
-4.699217274029715 0 1:-0.29780791 2:0.34701652 
-2.130543204693459 -55.28878519148319 1:-1.4140722 2:0.57492506 
-2.130543204693459 -0 1:-1.9708149 2:0.18112569 
-2.130543204693459 -55.28878519148319 1:-0.51938325 2:1.1913517 
-2.130543204693459 -55.28878519148319 1:-1.6619349 2:-0.2420384 
-2.130543204693459 -55.28878519148319 1:-1.8023405 2:0.21615461 
-2.130543204693459 -55.28878519148319 1:-1.3445942 2:0.77641543 
-2.130543204693459 -55.28878519148319 1:-1.5852673 2:0.53930705 
-2.130543204693459 -55.28878519148319 1:-1.9047436 2:-0.11881899 
-2.130543204693459 -55.28878519148319 1:-1.9492488 2:-0.040730259 
-2.130543204693459 -55.28878519148319 1:-1.2983298 2:0.76101394 
-2.130543204693459 -55.28878519148319 1:-1.1980974 2:0.60557896 
-2.130543204693459 -55.28878519148319 1:-1.3876683 2:0.20403099 
-2.130543204693459 -55.28878519148319 1:-1.2576252 2:0.179137 
-2.130543204693459 -55.28878519148319 1:-1.2906696 2:0.11642525 
-2.130543204693459 -55.28878519148319 1:-1.4431026 2:0.14380129 
-2.130543204693459 -55.28878519148319 1:-1.7796401 2:0.50146479 
-2.130543204693459 -55.28878519148319 1:-1.9048629 2:-0.048047508 
-2.130543204693459 -55.28878519148319 1:-1.1688535 2:0.1645025 
-0 -55.28878519148319 1:-2.1076537 2:-0.37148225 
-2.130543204693459 -55.28878519148319 1:-1.9224509 2:-0.40927118 
-2.130543204693459 -55.28878519148319 1:-1.4140722 2:0.57492506 
-2.130543204693459 -55.28878519148319 1:-1.944017 2:-0.18741522 
-2.130543204693459 -55.28878519148319 1:-1.5256636 2:0.37502085 
-2.130543204693459 -55.28878519148319 1:-1.7640459 2:-0.078519186 
-2.130543204693459 -55.28878519148319 1:-1.9016291 2:-0.11587675 
-2.130543204693459 -55.28878519148319 1:-1.3896661 2:0.28288671 
